digraph Tree {
node [shape=box, style="filled, rounded", color="black", fontname="helvetica"] ;
edge [fontname="helvetica"] ;
0 [label="chest_pain_type_atypical angina <= 0.5\ngini = 0.48\nsamples = 100.0%\nvalue = [0.4, 0.6]\nclass = disease", fillcolor="#c0e0f7"] ;
1 [label="num_major_vessels <= 0.5\n0.5\n74.1%\n[0.51, 0.49]\nno disesase", fillcolor="#fef8f4"] ;
0 -> 1 [labeldistance=2.5, labelangle=45, headlabel="True"] ;
2 [label="st_slope_flat <= 0.5\n0.4\n44.8%\n[0.28, 0.72]\ndisease", fillcolor="#85c3ef"] ;
1 -> 2 ;
3 [label="age <= 44.5\n0.49\n25.9%\n[0.42, 0.58]\ndisease", fillcolor="#cbe5f8"] ;
2 -> 3 ;
4 [label="thalassemia_fixed defect <= 0.5\n0.28\n2.8%\n[0.83, 0.17]\nno disesase", fillcolor="#ea9a61"] ;
3 -> 4 ;
5 [label="0.0\n2.1%\n[1.0, 0.0]\nno disesase", fillcolor="#e58139"] ;
4 -> 5 ;
6 [label="0.0\n0.7%\n[0.0, 1.0]\ndisease", fillcolor="#399de5"] ;
4 -> 6 ;
7 [label="st_slope_upsloping <= 0.5\n0.47\n23.1%\n[0.38, 0.62]\ndisease", fillcolor="#b4daf5"] ;
3 -> 7 ;
8 [label="0.5\n4.2%\n[0.5, 0.5]\nno disesase", fillcolor="#ffffff"] ;
7 -> 8 ;
9 [label="0.46\n18.9%\n[0.36, 0.64]\ndisease", fillcolor="#a8d4f4"] ;
7 -> 9 ;
10 [label="exercise_induced_angina_yes <= 0.5\n0.09\n18.9%\n[0.05, 0.95]\ndisease", fillcolor="#43a2e6"] ;
2 -> 10 ;
11 [label="0.0\n14.7%\n[0.0, 1.0]\ndisease", fillcolor="#399de5"] ;
10 -> 11 ;
12 [label="cholesterol <= 280.0\n0.35\n4.2%\n[0.22, 0.78]\ndisease", fillcolor="#72b9ec"] ;
10 -> 12 ;
13 [label="0.0\n2.1%\n[0.0, 1.0]\ndisease", fillcolor="#399de5"] ;
12 -> 13 ;
14 [label="0.5\n2.1%\n[0.5, 0.5]\nno disesase", fillcolor="#ffffff"] ;
12 -> 14 ;
15 [label="exercise_induced_angina_yes <= 0.5\n0.2\n29.4%\n[0.88, 0.12]\nno disesase", fillcolor="#e89253"] ;
1 -> 15 ;
16 [label="rest_ecg_normal <= 0.5\n0.31\n14.7%\n[0.81, 0.19]\nno disesase", fillcolor="#eb9e67"] ;
15 -> 16 ;
17 [label="age <= 53.0\n0.47\n7.7%\n[0.62, 0.38]\nno disesase", fillcolor="#f5cdb0"] ;
16 -> 17 ;
18 [label="0.32\n2.1%\n[0.2, 0.8]\ndisease", fillcolor="#6ab6ec"] ;
17 -> 18 ;
19 [label="0.3\n5.6%\n[0.82, 0.18]\nno disesase", fillcolor="#eb9d65"] ;
17 -> 19 ;
20 [label="thalassemia_fixed defect <= 0.5\n0.09\n7.0%\n[0.95, 0.05]\nno disesase", fillcolor="#e68743"] ;
16 -> 20 ;
21 [label="0.0\n5.6%\n[1.0, 0.0]\nno disesase", fillcolor="#e58139"] ;
20 -> 21 ;
22 [label="0.44\n1.4%\n[0.67, 0.33]\nno disesase", fillcolor="#f2c09c"] ;
20 -> 22 ;
23 [label="st_slope_upsloping <= 0.5\n0.06\n14.7%\n[0.97, 0.03]\nno disesase", fillcolor="#e6853f"] ;
15 -> 23 ;
24 [label="st_slope_flat <= 0.5\n0.17\n4.2%\n[0.91, 0.09]\nno disesase", fillcolor="#e88e4d"] ;
23 -> 24 ;
25 [label="0.0\n0.7%\n[1.0, 0.0]\nno disesase", fillcolor="#e58139"] ;
24 -> 25 ;
26 [label="0.2\n3.5%\n[0.89, 0.11]\nno disesase", fillcolor="#e89152"] ;
24 -> 26 ;
27 [label="0.0\n10.5%\n[1.0, 0.0]\nno disesase", fillcolor="#e58139"] ;
23 -> 27 ;
28 [label="fasting_blood_sugar_lower than 120mg/ml <= 0.5\n0.19\n25.9%\n[0.11, 0.89]\ndisease", fillcolor="#51a9e8"] ;
0 -> 28 [labeldistance=2.5, labelangle=-45, headlabel="False"] ;
29 [label="st_slope_upsloping <= 0.5\n0.36\n6.3%\n[0.23, 0.77]\ndisease", fillcolor="#74baed"] ;
28 -> 29 ;
30 [label="0.0\n3.5%\n[0.0, 1.0]\ndisease", fillcolor="#399de5"] ;
29 -> 30 ;
31 [label="cholesterol <= 249.5\n0.48\n2.8%\n[0.6, 0.4]\nno disesase", fillcolor="#f6d5bd"] ;
29 -> 31 ;
32 [label="max_heart_rate_achieved <= 135.5\n0.44\n1.4%\n[0.33, 0.67]\ndisease", fillcolor="#9ccef2"] ;
31 -> 32 ;
33 [label="0.0\n0.7%\n[1.0, 0.0]\nno disesase", fillcolor="#e58139"] ;
32 -> 33 ;
34 [label="0.0\n0.7%\n[0.0, 1.0]\ndisease", fillcolor="#399de5"] ;
32 -> 34 ;
35 [label="0.0\n1.4%\n[1.0, 0.0]\nno disesase", fillcolor="#e58139"] ;
31 -> 35 ;
36 [label="max_heart_rate_achieved <= 159.0\n0.14\n19.6%\n[0.08, 0.92]\ndisease", fillcolor="#49a5e7"] ;
28 -> 36 ;
37 [label="resting_blood_pressure <= 135.0\n0.3\n9.1%\n[0.18, 0.82]\ndisease", fillcolor="#65b3eb"] ;
36 -> 37 ;
38 [label="0.0\n4.2%\n[0.0, 1.0]\ndisease", fillcolor="#399de5"] ;
37 -> 38 ;
39 [label="cholesterol <= 324.0\n0.44\n4.9%\n[0.33, 0.67]\ndisease", fillcolor="#9ccef2"] ;
37 -> 39 ;
40 [label="0.32\n4.2%\n[0.2, 0.8]\ndisease", fillcolor="#6ab6ec"] ;
39 -> 40 ;
41 [label="0.0\n0.7%\n[1.0, 0.0]\nno disesase", fillcolor="#e58139"] ;
39 -> 41 ;
42 [label="0.0\n10.5%\n[0.0, 1.0]\ndisease", fillcolor="#399de5"] ;
36 -> 42 ;
}